{"ols_pool_baseline": {"aic": 19537.883811867527, "bic": 19560.643126542473, "rsquared_adj": 0.0003826463527634161, "nobs": 2186.0, "coef_name": ["Intercept", "front_amount_6m", "front_amount_12m", "choice_peli"], "params": [53.7422718190243, -0.005311989785595047, -0.0056402855358125194, -0.23853451678695498], "bse": [3.6186700436877857, 0.00201117756215362, 0.001937623615886016, 3.950374693854019], "tvalues": [14.851387711562552, -2.641233616343071, -2.910929392875607, -0.06038275740224497], "pvalues": [6.814331353013204e-50, 0.008260473795881906, 0.0036035544007758605, 0.9518507911966461], "ci_lower": [46.64980886146226, -0.00925382537393121, -0.009437958038543384, -7.981126642179275], "ci_upper": [60.834734776586345, -0.0013701541972588856, -0.0018426130330816562, 7.504057608605365], "contrast_mean": 0.0}, "ols_pool_label": {"aic": 18652.914814206626, "bic": 18687.053786219047, "rsquared_adj": 0.33377670859668906, "nobs": 2186.0, "coef_name": ["Intercept", "front_amount_6m_0", "front_amount_12m_0", "front_amount_6m_1", "front_amount_12m_1", "choice_peli"], "params": [53.75244113806295, -0.05904809293580527, -0.060273015785409265, 0.023025997826037335, 0.023328835725558165, -0.27971759650977035], "bse": [2.6960170167301247, 0.005185714336702278, 0.004974878928302374, 0.003570504287898228, 0.003632747393140955, 2.646802643807499], "tvalues": [19.937723243029385, -11.386684476213434, -12.11547389475402, 6.448948375186395, 6.4218161079974045, -0.10568131974788601], "pvalues": [1.9158840890964447e-88, 4.8717624810761776e-30, 8.745717085867848e-34, 1.126289165685382e-10, 1.3465803537764702e-10, 0.9158352020224994], "ci_lower": [48.46834488356478, -0.06921190626985475, -0.07002359931232914, 0.016027938015110973, 0.016208781670070123, -5.467355452557865], "ci_upper": [59.036537392561115, -0.04888427960175579, -0.05052243225848939, 0.030024057636963697, 0.030448889781046207, 4.907920259538325], "contrast_mean": 0.0}, "ols_fe_baseline": {"aic": 17406.312706504756, "bic": 18310.995464833857, "rsquared_adj": 0.647819120672172, "nobs": 2186.0, "coef_name": ["Intercept", "front_amount_6m", "front_amount_12m", "choice_peli"], "params": [52.54118406716245, -0.005039928314543947, -0.00530649187413035, 9.186859464977413], "bse": [0.4850537446817909, 0.0020586678460800937, 0.0020498037658225935, 0.014594701102171552], "tvalues": [108.32033489738537, -2.4481503046450483, -2.5887804299163415, 629.4654067023337], "pvalues": [0.0, 0.014359174088488075, 0.00963164870435693, 0.0], "ci_lower": [51.59049619701985, -0.009074843148991579, -0.009324033430517208, 9.15825437645203], "ci_upper": [53.49187193730504, -0.001005013480096316, -0.0012889503177434918, 9.215464553502796], "contrast_mean": -6.106716933438857}, "ols_fe_label": {"aic": 17369.320330589828, "bic": 18285.3827462564, "rsquared_adj": 0.6540203903287058, "nobs": 2186.0, "coef_name": ["Intercept", "front_amount_6m_0", "front_amount_12m_0", "front_amount_6m_1", "front_amount_12m_1", "choice_peli"], "params": [52.48226151083612, -0.018557412299133297, -0.020007761801465063, 0.0020691556106751333, 0.002432380420780882, 7.278427822137045], "bse": [0.4285413922356455, 0.004219185156433107, 0.004044053283542986, 0.001842579014439927, 0.001861980588604257, 0.35854209343823124], "tvalues": [122.46719327867697, -4.398340345608749, -4.9474525676714896, 1.1229670990820857, 1.3063403752260367, 20.30006505607397], "pvalues": [0.0, 1.0908182570947727e-05, 7.519101820721437e-07, 0.2614514679581389, 0.19143683253708954, 1.2841477747297326e-91], "ci_lower": [51.6423358161696, -0.026826863249848183, -0.027933960588770262, -0.0015422328962964318, -0.0012170344727961526, 6.575698232056517], "ci_upper": [53.32218720550264, -0.010287961348418412, -0.012081563014159864, 0.005680544117646699, 0.0060817953143579165, 7.9811574122175735], "contrast_mean": -4.566633187468812}, "rlm_pool_baseline": {"aic": 24.667647629005415, "bic": "", "rsquared_adj": "", "nobs": 2198.0, "coef_name": ["const", "front_amount_6m", "front_amount_12m", "choice_peli"], "params": [55.00016365689118, -0.004841466247584555, -0.006043865814548323, -0.8484033880533236], "bse": [0.9868212224050765, 0.0024985146896033374, 0.0025222115868767984, 0.8912767695892282], "tvalues": [55.73467859035805, -1.9377377558477287, -2.396256462382014, -0.9518966689150172], "pvalues": [0.0, 0.0526552251283034, 0.01656349646157977, 0.3411493890858843], "ci_lower": [53.06602960179744, -0.00973846505405137, -0.010987309686216466, -2.595273756705415], "ci_upper": [56.934297711984925, 5.553255888225781e-05, -0.00110042194288018, 0.8984669805987678], "contrast_mean": 0.0}, "rlm_pool_label": {"aic": 47.50511809111291, "bic": "", "rsquared_adj": "", "nobs": 2198.0, "coef_name": ["const", "front_amount_6m_0", "front_amount_12m_0", "front_amount_6m_1", "front_amount_12m_1", "choice_peli"], "params": [55.54025946697236, -0.05899085264053534, -0.06434091836973277, 0.015455793510236097, 0.015219960820606336, -0.682138088780389], "bse": [0.7600316432944809, 0.003050357932286077, 0.002929030115181057, 0.0020328976397663815, 0.0020409169216540506, 0.6773740339552925], "tvalues": [73.07624617604611, -19.338993636174663, -21.966629170610478, 7.602839025388539, 7.457413214189726, -1.0070331228926483], "pvalues": [0.0, 2.5235188685663295e-83, 6.006419555539973e-107, 2.8970376538416315e-14, 8.823764458006899e-14, 0.3139188571182049], "ci_lower": [54.05062481900438, -0.06496944432777213, -0.07008171190512084, 0.01147138735203751, 0.011219837158726043, -2.009766799395374], "ci_upper": [57.02989411494033, -0.053012260953298564, -0.058600124834344694, 0.019440199668434684, 0.01922008448248663, 0.6454906218345959], "contrast_mean": 0.0}, "rlm_fe_baseline": {"aic": 459.3441396295753, "bic": "", "rsquared_adj": "", "nobs": 2198.0, "coef_name": ["const", "front_amount_6m", "front_amount_12m", "choice_peli"], "params": [51.82971325415912, -0.0047679694276198895, -0.006412110307864736, 2.1813266049495166], "bse": [NaN, 0.00098515866426282, 0.0009894390673044968, NaN], "tvalues": [NaN, -4.839798502089704, -6.4805509704939, NaN], "pvalues": [NaN, 1.2997083834107788e-06, 9.138827412775693e-11, NaN], "ci_lower": [NaN, -0.006698844928632604, -0.008351375244678452, NaN], "ci_upper": [NaN, -0.0028370939266071753, -0.004472845371051019, NaN], "contrast_mean": 0.3280361598390239}, "rlm_fe_label": {"aic": 471.7554017154888, "bic": "", "rsquared_adj": "", "nobs": 2198.0, "coef_name": ["const", "front_amount_6m_0", "front_amount_12m_0", "front_amount_6m_1", "front_amount_12m_1", "choice_peli"], "params": [51.98230344517302, -0.01653960258618633, -0.021409965215038962, 5.868745442000507e-05, -0.000202957706401166, 2.279011401149863], "bse": [9942610.295474248, 0.001783129563287991, 0.0017836797485274911, 0.0011348051672756276, 0.0011430398512520994, NaN], "tvalues": [5.228235030878633e-06, -9.275603369890986, -12.00325632037582, 0.05171588578583794, -0.17755960667411877, NaN], "pvalues": [0.9999958284719886, 1.7661654811249255e-20, 3.415874106370986e-33, 0.958755079151423, 0.8590688495719538, NaN], "ci_lower": [-19487106.109143227, -0.020034472309999427, -0.024905913282106305, -0.0021654898029101768, -0.0024432746477493013, NaN], "ci_upper": [19487210.073750116, -0.013044732862373232, -0.01791401714797162, 0.002282864711750187, 0.0020373592349469693, NaN], "contrast_mean": 0.3290019205383543}}