{"ols_pool_baseline": {"aic": 19537.883811867527, "bic": 19560.643126542473, "rsquared_adj": 0.0003826463527634161, "nobs": 2186.0, "coef_name": ["Intercept", "front_amount_6m", "front_amount_12m", "choice_peli"], "params": [53.7422718190243, -0.005311989785595047, -0.0056402855358125194, -0.23853451678695498], "bse": [3.6186700436877857, 0.00201117756215362, 0.001937623615886016, 3.950374693854019], "tvalues": [14.851387711562552, -2.641233616343071, -2.910929392875607, -0.06038275740224497], "pvalues": [6.814331353013204e-50, 0.008260473795881906, 0.0036035544007758605, 0.9518507911966461], "ci_lower": [46.64980886146226, -0.00925382537393121, -0.009437958038543384, -7.981126642179275], "ci_upper": [60.834734776586345, -0.0013701541972588856, -0.0018426130330816562, 7.504057608605365], "contrast_mean": 0.0}, "ols_pool_label": {"aic": 18652.914814206626, "bic": 18687.053786219047, "rsquared_adj": 0.33377670859668906, "nobs": 2186.0, "coef_name": ["Intercept", "front_amount_6m_0", "front_amount_12m_0", "front_amount_6m_1", "front_amount_12m_1", "choice_peli"], "params": [53.75244113806295, -0.05904809293580527, -0.060273015785409265, 0.023025997826037335, 0.023328835725558165, -0.27971759650977035], "bse": [2.6960170167301247, 0.005185714336702278, 0.004974878928302374, 0.003570504287898228, 0.003632747393140955, 2.646802643807499], "tvalues": [19.937723243029385, -11.386684476213434, -12.11547389475402, 6.448948375186395, 6.4218161079974045, -0.10568131974788601], "pvalues": [1.9158840890964447e-88, 4.8717624810761776e-30, 8.745717085867848e-34, 1.126289165685382e-10, 1.3465803537764702e-10, 0.9158352020224994], "ci_lower": [48.46834488356478, -0.06921190626985475, -0.07002359931232914, 0.016027938015110973, 0.016208781670070123, -5.467355452557865], "ci_upper": [59.036537392561115, -0.04888427960175579, -0.05052243225848939, 0.030024057636963697, 0.030448889781046207, 4.907920259538325], "contrast_mean": 0.0}, "ols_fe_baseline": {"aic": 17406.312706504756, "bic": 18310.995464833857, "rsquared_adj": 0.647819120672172, "nobs": 2186.0, "coef_name": ["Intercept", "front_amount_6m", "front_amount_12m", "choice_peli"], "params": [52.54118406716245, -0.005039928314543947, -0.00530649187413035, 9.186859464977413], "bse": [0.4850537446817909, 0.0020586678460800937, 0.0020498037658225935, 0.014594701102171552], "tvalues": [108.32033489738537, -2.4481503046450483, -2.5887804299163415, 629.4654067023337], "pvalues": [0.0, 0.014359174088488075, 0.00963164870435693, 0.0], "ci_lower": [51.59049619701985, -0.009074843148991579, -0.009324033430517208, 9.15825437645203], "ci_upper": [53.49187193730504, -0.001005013480096316, -0.0012889503177434918, 9.215464553502796], "contrast_mean": -6.106716933438857}, "ols_fe_label": {"aic": 17369.320330589828, "bic": 18285.3827462564, "rsquared_adj": 0.6540203903287058, "nobs": 2186.0, "coef_name": ["Intercept", "front_amount_6m_0", "front_amount_12m_0", "front_amount_6m_1", "front_amount_12m_1", "choice_peli"], "params": [52.48226151083612, -0.018557412299133297, -0.020007761801465063, 0.0020691556106751333, 0.002432380420780882, 7.278427822137045], "bse": [0.4285413922356455, 0.004219185156433107, 0.004044053283542986, 0.001842579014439927, 0.001861980588604257, 0.35854209343823124], "tvalues": [122.46719327867697, -4.398340345608749, -4.9474525676714896, 1.1229670990820857, 1.3063403752260367, 20.30006505607397], "pvalues": [0.0, 1.0908182570947727e-05, 7.519101820721437e-07, 0.2614514679581389, 0.19143683253708954, 1.2841477747297326e-91], "ci_lower": [51.6423358161696, -0.026826863249848183, -0.027933960588770262, -0.0015422328962964318, -0.0012170344727961526, 6.575698232056517], "ci_upper": [53.32218720550264, -0.010287961348418412, -0.012081563014159864, 0.005680544117646699, 0.0060817953143579165, 7.9811574122175735], "contrast_mean": -4.566633187468812}, "rlm_pool_baseline": {"aic": 24.667647629005415, "bic": "", "rsquared_adj": "", "nobs": 2198.0, "coef_name": ["const", "front_amount_6m", "front_amount_12m", "choice_peli"], "params": [55.00016365689118, -0.004841466247584555, -0.006043865814548323, -0.8484033880533236], "bse": [0.9634991154674387, 0.002521218711450098, 0.0025212187114501, 0.8609968787379471], "tvalues": [57.08377182080548, -1.920288083535581, -2.3972001267086194, -0.9853733608151019], "pvalues": [0.0, 0.054821520738969294, 0.01652089766169589, 0.32444070984514817], "ci_lower": [53.111740091438804, -0.00978296411917523, -0.010985363686139001, -2.5359262611811], "ci_upper": [56.88858722234356, 0.00010003162400611977, -0.0011023679429576433, 0.8391194850744529], "contrast_mean": 0.0}, "rlm_pool_label": {"aic": 47.50511809111291, "bic": "", "rsquared_adj": "", "nobs": 2198.0, "coef_name": ["const", "front_amount_6m_0", "front_amount_12m_0", "front_amount_6m_1", "front_amount_12m_1", "choice_peli"], "params": [55.54025946697236, -0.05899085264053534, -0.06434091836973277, 0.015455793510236097, 0.015219960820606336, -0.682138088780389], "bse": [0.7299292181978564, 0.0025656146025032764, 0.0025656146025032685, 0.0021106153940441156, 0.0021106153940441182, 0.6522755955126629], "tvalues": [76.0899249986147, -22.992873747669595, -25.07816969351335, 7.322884858060996, 7.211148399445528, -1.045782018326556], "pvalues": [0.0, 5.493007610815206e-117, 8.607702839300806e-139, 2.4269603270344327e-13, 5.548194792180844e-13, 0.29566168505601764], "ci_lower": [54.10962448804108, -0.06401936485965182, -0.06936943058884923, 0.011319063352693816, 0.01108323066306405, -1.9605747639796243], "ci_upper": [56.97089444590364, -0.053962340421418876, -0.059312406150616316, 0.01959252366777838, 0.01935669097814862, 0.5962985864188464], "contrast_mean": 0.0}, "rlm_fe_baseline": {"aic": 459.3441396295753, "bic": "", "rsquared_adj": "", "nobs": 2198.0, "coef_name": ["const", "front_amount_6m", "front_amount_12m", "choice_peli"], "params": [51.82971325415912, -0.0047679694276198895, -0.006412110307864736, 2.1813266049495166], "bse": [0.3612664824388201, 0.0009883462029390327, 0.000988346202939039, 0.3188508141706584], "tvalues": [143.46670885233976, -4.8241895536619035, -6.487716843346069, 6.841213846742778], "pvalues": [0.0, 1.4057368156598736e-06, 8.714686348277243e-11, 7.852493170103284e-12], "ci_lower": [51.121643959757556, -0.006705092389637309, -0.008349233269882168, 1.5563904927337526], "ci_upper": [52.53778254856068, -0.0028308464656024704, -0.004474987345847304, 2.8062627171652803], "contrast_mean": 0.3280361598390239}, "rlm_fe_label": {"aic": 471.7554017154888, "bic": "", "rsquared_adj": "", "nobs": 2198.0, "coef_name": ["const", "front_amount_6m_0", "front_amount_12m_0", "front_amount_6m_1", "front_amount_12m_1", "choice_peli"], "params": [51.98230344517302, -0.01653960258618633, -0.021409965215038962, 5.868745442000507e-05, -0.000202957706401166, 2.279011401149863], "bse": [0.35116002884387526, 0.0016380947967258553, 0.0016380947967261294, 0.001186089055110621, 0.00118608905511038, 0.30993128660058294], "tvalues": [148.03024027624795, -10.096853136488125, -13.070040426127099, 0.04947980437652009, -0.17111506553972738, 7.35327958060229], "pvalues": [0.0, 5.704332804722591e-24, 4.8839565840698404e-39, 0.9605369312562498, 0.8641332899967313, 1.9340181539962108e-13], "ci_lower": [51.29404243582898, -0.019750209391031465, -0.024620572019884636, -0.002266004376053955, -0.002527649536874654, 1.6715572417305586], "ci_upper": [52.670564454517056, -0.013328995781341193, -0.018199358410193288, 0.0023833792848939653, 0.002121734124072322, 2.886465560569167], "contrast_mean": 0.3290019205383543}}