{"ols_pool_baseline": {"aic": 19537.883811867527, "bic": 19560.643126542473, "rsquared_adj": 0.00038264635276286096, "nobs": 2186.0, "coef_name": ["Intercept", "front_amount_6m", "front_amount_12m", "choice_peli"], "params": [53.742271819024296, -0.0053119897855970965, -0.005640285535810356, -0.2385345167869694], "bse": [3.618670043687789, 0.002011177562153669, 0.0019376236158860757, 3.950374693854019], "tvalues": [14.851387711562536, -2.6412336163440258, -2.9109293928744013, -0.06038275740224862], "pvalues": [6.814331353014761e-50, 0.008260473795858621, 0.00360355440078976, 0.9518507911966432], "ci_lower": [46.64980886146225, -0.009253825373933353, -0.009437958038541337, -7.981126642179289], "ci_upper": [60.834734776586345, -0.001370154197260839, -0.001842613033079376, 7.5040576086053505], "contrast_mean": 0.0}, "ols_pool_label": {"aic": 18652.616190145505, "bic": 18686.755162157926, "rsquared_adj": 0.3338677134990031, "nobs": 2186.0, "coef_name": ["Intercept", "front_amount_6m_0", "front_amount_12m_0", "front_amount_6m_1", "front_amount_12m_1", "choice_peli"], "params": [54.03666554620733, 0.0220903477238848, 0.02266114301363744, -0.06033093554334869, -0.062161531745749725, -0.645221642157332], "bse": [2.6839333093020636, 0.003540595321943571, 0.0035778782846173766, 0.005304051301168286, 0.00501082411254705, 2.638448061420738], "tvalues": [20.133386086355163, 6.239161981312947, 6.333681922905562, -11.374500757573747, -12.405450750126693, -0.2445458948355786], "pvalues": [3.763758195005643e-90, 4.399212694418833e-10, 2.3937875332932826e-10, 5.6022503109073684e-30, 2.4413500533983714e-35, 0.8068080617337512], "ci_lower": [48.77625292306789, 0.015150908409044404, 0.015648630434719434, -0.07072668506579134, -0.07198256653920682, -5.816484817621503], "ci_upper": [59.297078169346776, 0.029029787038725195, 0.029673655592555446, -0.04993518602090603, -0.05234049695229263, 4.526041533306839], "contrast_mean": 0.0}, "ols_fe_baseline": {"aic": 17406.312706504756, "bic": 18310.995464833857, "rsquared_adj": 0.647819120672172, "nobs": 2186.0, "coef_name": ["Intercept", "front_amount_6m", "front_amount_12m", "choice_peli"], "params": [52.54118406716243, -0.005039928314540965, -0.0053064918741285005, 9.186859464977445], "bse": [0.48505374468178736, 0.0020586678460800603, 0.002049803765822596, 0.01459470110359995], "tvalues": [108.32033489738613, -2.4481503046436397, -2.5887804299154364, 629.4654066407295], "pvalues": [0.0, 0.014359174088544218, 0.00963164870438224, 0.0], "ci_lower": [51.590496197019846, -0.00907484314898853, -0.009324033430515364, 9.158254376449262], "ci_upper": [53.49187193730502, -0.0010050134800933998, -0.0012889503177416373, 9.215464553505628], "contrast_mean": -6.106716933438893}, "ols_fe_label": {"aic": 17366.962337204463, "bic": 18283.024752871035, "rsquared_adj": 0.6543933902309768, "nobs": 2186.0, "coef_name": ["Intercept", "front_amount_6m_0", "front_amount_12m_0", "front_amount_6m_1", "front_amount_12m_1", "choice_peli"], "params": [52.55390814570552, 0.00190337312369323, 0.002535103722000531, -0.019018131271248788, -0.021080095706585433, 7.215136529383106], "bse": [0.43188872164674325, 0.0018352514892397852, 0.0018307193492804706, 0.004327906211017487, 0.004117638373442502, 0.36423672203492635], "tvalues": [121.68390956198941, 1.0371184193843987, 1.3847582498086914, -4.394303005650772, -5.119462612973872, 19.808921212208944], "pvalues": [0.0, 0.29968067193730275, 0.16612640104528364, 1.1112872350795715e-05, 3.064075034038954e-07, 2.4936989060516414e-87], "ci_lower": [51.70742180594886, -0.0016936536977902473, -0.001053040268389795, -0.02750067157331027, -0.029150518619892825, 6.501245672347723], "ci_upper": [53.40039448546218, 0.005500399945176707, 0.0061232477123908564, -0.010535590969187306, -0.01300967279327804, 7.929027386418488], "contrast_mean": -4.588864664558168}, "rlm_pool_baseline": {"aic": 24.66764762900545, "bic": "", "rsquared_adj": "", "nobs": 2198.0, "coef_name": ["const", "front_amount_6m", "front_amount_12m", "choice_peli"], "params": [55.00016365689119, -0.004841466247586322, -0.006043865814546334, -0.8484033880533206], "bse": [0.9634991154674385, 0.002521218711450099, 0.0025212187114501015, 0.8609968787379472], "tvalues": [57.0837718208055, -1.920288083536281, -2.3972001267078293, -0.9853733608150983], "pvalues": [0.0, 0.05482152073888088, 0.016520897661731516, 0.32444070984514983], "ci_lower": [53.11174009143881, -0.009782964119177, -0.010985363686137017, -2.535926261181097], "ci_upper": [56.88858722234357, 0.00010003162400435469, -0.0011023679429556519, 0.8391194850744561], "contrast_mean": 0.0}, "rlm_pool_label": {"aic": 48.252916022823676, "bic": "", "rsquared_adj": "", "nobs": 2198.0, "coef_name": ["const", "front_amount_6m_0", "front_amount_12m_0", "front_amount_6m_1", "front_amount_12m_1", "choice_peli"], "params": [55.829300510014335, 0.014785423492642205, 0.014535168498413825, -0.06143774912157181, -0.0666165500889712, -1.0142609356905066], "bse": [0.7166642854174134, 0.0020617929152603304, 0.0020617929152603608, 0.0025516511278829246, 0.0025516511278829155, 0.6404430193111456], "tvalues": [77.9016083904574, 7.171148655720033, 7.049771289265654, -24.077644647505554, -26.107232827021466, -1.5836864562618482], "pvalues": [0.0, 7.437109232519532e-13, 1.7921210864447129e-12, 4.287111973847902e-128, 3.0177014689432215e-150, 0.11326508839956029], "ci_lower": [54.42466432159007, 0.010744383635152115, 0.010494128640923674, -0.06643889343333335, -0.07161769440073272, -2.269506187690442], "ci_upper": [57.2339366984386, 0.018826463350132296, 0.018576208355903977, -0.05643660480981027, -0.061615405777209684, 0.24098431630942896], "contrast_mean": 0.0}, "rlm_fe_baseline": {"aic": 459.3441396295764, "bic": "", "rsquared_adj": "", "nobs": 2198.0, "coef_name": ["const", "front_amount_6m", "front_amount_12m", "choice_peli"], "params": [51.829713254158946, -0.004767969427612223, -0.0064121103078641686, 2.181326604952563], "bse": [0.3612664824388202, 0.0009883462029390189, 0.0009883462029390401, 0.3188508141706587], "tvalues": [143.46670885233925, -4.8241895536542145, -6.487716843345488, 6.841213846752326], "pvalues": [0.0, 1.4057368157140975e-06, 8.71468634831087e-11, 7.852493169579853e-12], "ci_lower": [51.121643959757385, -0.006705092389629615, -0.008349233269881602, 1.5563904927367984], "ci_upper": [52.53778254856051, -0.0028308464655948306, -0.004474987345846735, 2.8062627171683276], "contrast_mean": 0.328036159836893}, "rlm_fe_label": {"aic": 471.61850376101415, "bic": "", "rsquared_adj": "", "nobs": 2198.0, "coef_name": ["const", "front_amount_6m_0", "front_amount_12m_0", "front_amount_6m_1", "front_amount_12m_1", "choice_peli"], "params": [52.055056946284765, 7.50099841955263e-05, -0.00038181536471080905, -0.01740110113724844, -0.022003690079328453, 2.2062470045906952], "bse": [0.3510760416281067, 0.00117432748150752, 0.001174327481508377, 0.0016687151238162492, 0.0016687151238166944, 0.3098967712743601], "tvalues": [148.2728832901291, 0.06387484358216133, -0.32513533977794884, -10.427844087283868, -13.186007464834077, 7.119296517734431], "pvalues": [0.0, 0.9490698832769677, 0.7450786434343859, 1.8503900184941871e-25, 1.0563331943856894e-39, 1.0847930894251724e-12], "ci_lower": [51.36696054885879, -0.002226629585614839, -0.002683454934522854, -0.020671722680385585, -0.02527431162246647, 1.5988604939677025], "ci_upper": [52.74315334371074, 0.0023766495540058917, 0.001919824205101236, -0.014130479594111294, -0.018733068536190434, 2.813633515213688], "contrast_mean": 0.3294623857353215}}