{"ols_pool_baseline": {"aic": 20119.45568775408, "bic": 20142.31618216861, "rsquared_adj": 0.0008132853851023913, "nobs": 2242.0, "coef_name": ["Intercept", "front_amount_6m", "front_amount_12m", "choice_peli"], "params": [54.19383917430769, -0.005918743098828252, -0.005956567177308864, -0.7045551829092571], "bse": [3.461116603189322, 0.00204488597070482, 0.0020621269188078437, 3.8148186717441868], "tvalues": [15.657906215690504, -2.8944122966368693, -2.8885550753357476, -0.18468903597641378], "pvalues": [2.9339840094262906e-55, 0.003798690116585041, 0.003870162476858617, 0.8534729462602144], "ci_lower": [47.41017528576301, -0.009926645953900928, -0.009998261669722789, -8.18146238707879], "ci_upper": [60.97750306285237, -0.001910840243755576, -0.0019148726848949383, 6.772352021260275], "contrast_mean": 0.0}, "ols_pool_label": {"aic": 19207.64422288096, "bic": 19241.934964502754, "rsquared_adj": 0.3352865620908403, "nobs": 2242.0, "coef_name": ["Intercept", "front_amount_6m_0", "front_amount_12m_0", "front_amount_6m_1", "front_amount_12m_1", "choice_peli"], "params": [54.58628589923544, 0.023356313342960497, 0.02429668664258685, -0.059554297716130744, -0.06083402810279605, -1.2182510453406152], "bse": [2.602837177202311, 0.0035438152752736564, 0.0036671477092568485, 0.005037423582140719, 0.004834488778867924, 2.552076457018374], "tvalues": [20.97184041220286, 6.5907253986755565, 6.625499862265052, -11.822372438019668, -12.583342497082256, -0.477356797830389], "pvalues": [1.185869237198953e-97, 4.376827623295867e-11, 3.460750565549563e-11, 2.99116179266372e-32, 2.6075865944515184e-36, 0.6331080723361399], "ci_lower": [49.48481877429701, 0.016410563035561234, 0.017109209206454867, -0.0694274665119993, -0.0703094519930402, -6.220228986889211], "ci_upper": [59.68775302417387, 0.03030206365035976, 0.03148416407871883, -0.04968112892026219, -0.051358604212551895, 3.7837268962079804], "contrast_mean": 0.0}, "ols_fe_baseline": {"aic": 18000.520020113094, "bic": 18932.085167505127, "rsquared_adj": 0.6372586508416389, "nobs": 2242.0, "coef_name": ["Intercept", "front_amount_6m", "front_amount_12m", "choice_peli"], "params": [53.09109681428255, -0.005829380140808653, -0.005719541387439845, 8.796278145352286], "bse": [0.5066908681017502, 0.0020970748555182686, 0.0021788860598280684, 0.014193328675725026], "tvalues": [104.78005457880317, -2.779767315157659, -2.624984157221678, 619.7473719041424], "pvalues": [0.0, 0.005439786105009056, 0.008665299907185384, 0.0], "ci_lower": [52.098000961507786, -0.009939571330508996, -0.009990079591119244, 8.768459732327125], "ci_upper": [54.084192667057316, -0.0017191889511083093, -0.0014490031837604452, 8.824096558377446], "contrast_mean": -6.120013458767359}, "ols_fe_label": {"aic": 17955.294426056666, "bic": 18898.289820655962, "rsquared_adj": 0.6447945339856764, "nobs": 2242.0, "coef_name": ["Intercept", "front_amount_6m_0", "front_amount_12m_0", "front_amount_6m_1", "front_amount_12m_1", "choice_peli"], "params": [53.12637726112999, 0.002181589509412215, 0.003181276270777803, -0.020469435161848123, -0.021931730100562097, 6.520185880134358], "bse": [0.4491741892883704, 0.0018282232544138174, 0.0019860188199421836, 0.004208413574798707, 0.004138618815060763, 0.3917167017979562], "tvalues": [118.27566794365111, 1.193283973467287, 1.6018359135541402, -4.863931454937196, -5.299287293807003, 16.64515669157607], "pvalues": [0.0, 0.23275817692156175, 0.10919189910229411, 1.1507677975976171e-06, 1.1625558365252508e-07, 3.2810620862995816e-62], "ci_lower": [52.24601202733981, -0.0014016622249374755, -0.000711249088927615, -0.02871777420050305, -0.03004327392382103, 5.7524352524675475], "ci_upper": [54.00674249492017, 0.005764841243761905, 0.007073801630483221, -0.012221096123193196, -0.013820186277303166, 7.287936507801168], "contrast_mean": -4.415734839140058}, "rlm_pool_baseline": {"aic": 23.83711951073345, "bic": "", "rsquared_adj": "", "nobs": 2254.0, "coef_name": ["const", "front_amount_6m", "front_amount_12m", "choice_peli"], "params": [55.42535492476745, -0.00552289334527592, -0.006800215212408241, -1.3321534292173576], "bse": [0.970362797600291, 0.002584049889354449, 0.0025840498893544106, 0.8649435346552463], "tvalues": [57.11817792462206, -2.137301360948436, -2.6316114253146954, -1.5401623063733683], "pvalues": [0.0, 0.032573488245243434, 0.008498099561999643, 0.12352079536574602], "ci_lower": [53.52347878953335, -0.010587538062665353, -0.011864859929797598, -3.0274116058024125], "ci_upper": [57.327231060001544, -0.0004582486278864881, -0.001735570495018885, 0.3631047473676974], "contrast_mean": 0.0}, "rlm_pool_label": {"aic": 45.356857140736324, "bic": "", "rsquared_adj": "", "nobs": 2254.0, "coef_name": ["const", "front_amount_6m_0", "front_amount_12m_0", "front_amount_6m_1", "front_amount_12m_1", "choice_peli"], "params": [56.28515334004131, 0.015841121072412236, 0.015583553868656898, -0.06005203298350864, -0.06499493799540465, -1.5244844011420287], "bse": [0.732330413912432, 0.0021637364470380263, 0.0021637364470379903, 0.002593993938953456, 0.002593993938953475, 0.6528066091987929], "tvalues": [76.85759360906671, 7.321187889632955, 7.202149730384094, -23.15041376223746, -25.055932868380683, -2.3352772163460007], "pvalues": [0.0, 2.457854148786652e-13, 5.927055275356722e-13, 1.4398674139468901e-118, 1.5043611406300223e-138, 0.019528943598954594], "ci_lower": [54.849812103989635, 0.011600275564181046, 0.01134270836042578, -0.0651361676799726, -0.07007907269186865, -2.8039618440413765], "ci_upper": [57.72049457609299, 0.020081966580643425, 0.019824399376888017, -0.054967898287044674, -0.05991080329894065, -0.24500695824268082], "contrast_mean": 0.0}, "rlm_fe_baseline": {"aic": 451.7247103662926, "bic": "", "rsquared_adj": "", "nobs": 2254.0, "coef_name": ["const", "front_amount_6m", "front_amount_12m", "choice_peli"], "params": [52.442048601664865, -0.00519022938219623, -0.006747229805838925, 1.4314610979532736], "bse": [0.3751555616145122, 0.0010405730554605569, 0.00104057305546061, 0.33040256018075764], "tvalues": [139.78747476373877, -4.987856791947239, -6.4841481051537135, 4.332475805181853], "pvalues": [0.0, 6.105279687799086e-07, 8.923453290040373e-11, 1.4744187043944133e-05], "ci_lower": [51.70675721230052, -0.007229715094181721, -0.00878671551782452, 0.7838839795991608], "ci_upper": [53.17733999102921, -0.003150743670210738, -0.0047077440938533294, 2.0790382163073864], "contrast_mean": 0.32371634939295396}, "rlm_fe_label": {"aic": 463.15822973090985, "bic": "", "rsquared_adj": "", "nobs": 2254.0, "coef_name": ["const", "front_amount_6m_0", "front_amount_12m_0", "front_amount_6m_1", "front_amount_12m_1", "choice_peli"], "params": [52.70061226080931, 0.00013365301401382923, -7.168314137984827e-05, -0.017828507289655647, -0.02248865613323178, 1.438963224759358], "bse": [0.365078383169506, 0.0012597059444658537, 0.0012597059444654291, 0.0017015645170206986, 0.0017015645170207927, 0.32159558829217294], "tvalues": [144.3542392274165, 0.1060985816578816, -0.056904662310113846, -10.477714545242113, -13.216458093876069, 4.474449517174486], "pvalues": [0.0, 0.9155041364680332, 0.954621140346916, 1.0935443301765704e-25, 7.050665452002663e-40, 7.660842315372827e-06], "ci_lower": [51.98507177826296, -0.0023353252682502576, -0.002540661423643103, -0.02116351246038751, -0.025823661303963824, 0.8086474541197279], "ci_upper": [53.41615274335565, 0.002602631296277916, 0.0023972951408834063, -0.014493502118923786, -0.019153650962499734, 2.069278995398988], "contrast_mean": 0.3253124213609301}}