{"ols_pool_baseline": {"aic": 19537.883811867527, "bic": 19560.643126542473, "rsquared_adj": 0.00038264635276286096, "nobs": 2186.0, "coef_name": ["Intercept", "front_amount_6m", "front_amount_12m", "choice_peli"], "params": [53.742271819024296, -0.0053119897855970965, -0.005640285535810356, -0.2385345167869694], "bse": [3.618670043687789, 0.002011177562153669, 0.0019376236158860757, 3.950374693854019], "tvalues": [14.851387711562536, -2.6412336163440258, -2.9109293928744013, -0.06038275740224862], "pvalues": [6.814331353014761e-50, 0.008260473795858621, 0.00360355440078976, 0.9518507911966432], "ci_lower": [46.64980886146225, -0.009253825373933353, -0.009437958038541337, -7.981126642179289], "ci_upper": [60.834734776586345, -0.001370154197260839, -0.001842613033079376, 7.5040576086053505], "contrast_mean": 0.0}, "ols_pool_label": {"aic": 18652.616190145505, "bic": 18686.755162157926, "rsquared_adj": 0.3338677134990031, "nobs": 2186.0, "coef_name": ["Intercept", "front_amount_6m_0", "front_amount_12m_0", "front_amount_6m_1", "front_amount_12m_1", "choice_peli"], "params": [54.03666554620733, 0.0220903477238848, 0.02266114301363744, -0.06033093554334869, -0.062161531745749725, -0.645221642157332], "bse": [2.6839333093020636, 0.003540595321943571, 0.0035778782846173766, 0.005304051301168286, 0.00501082411254705, 2.638448061420738], "tvalues": [20.133386086355163, 6.239161981312947, 6.333681922905562, -11.374500757573747, -12.405450750126693, -0.2445458948355786], "pvalues": [3.763758195005643e-90, 4.399212694418833e-10, 2.3937875332932826e-10, 5.6022503109073684e-30, 2.4413500533983714e-35, 0.8068080617337512], "ci_lower": [48.77625292306789, 0.015150908409044404, 0.015648630434719434, -0.07072668506579134, -0.07198256653920682, -5.816484817621503], "ci_upper": [59.297078169346776, 0.029029787038725195, 0.029673655592555446, -0.04993518602090603, -0.05234049695229263, 4.526041533306839], "contrast_mean": 0.0}, "ols_fe_baseline": {"aic": 17406.312706504756, "bic": 18310.995464833857, "rsquared_adj": 0.647819120672172, "nobs": 2186.0, "coef_name": ["Intercept", "front_amount_6m", "front_amount_12m", "choice_peli"], "params": [52.54118406716241, -0.0050399283145375305, -0.005306491874132411, 9.186859464977438], "bse": [0.48505374468182805, 0.0020586678460800625, 0.0020498037658226013, 0.014594701103881334], "tvalues": [108.320334897377, -2.4481503046419686, -2.5887804299173376, 629.465406628593], "pvalues": [0.0, 0.014359174088610826, 0.00963164870432907, 0.0], "ci_lower": [51.59049619701974, -0.009074843148985101, -0.009324033430519286, 9.158254376448703], "ci_upper": [53.491871937305085, -0.0010050134800899608, -0.0012889503177455379, 9.215464553506173], "contrast_mean": -6.106716933438857}, "ols_fe_label": {"aic": 17366.962337204463, "bic": 18283.024752871035, "rsquared_adj": 0.6543933902309766, "nobs": 2186.0, "coef_name": ["Intercept", "front_amount_6m_0", "front_amount_12m_0", "front_amount_6m_1", "front_amount_12m_1", "choice_peli"], "params": [52.55390814570532, 0.0019033731236940158, 0.0025351037219961507, -0.01901813127126321, -0.021080095706575628, 7.215136529384247], "bse": [0.4318887216467279, 0.0018352514892397984, 0.0018307193492805237, 0.004327906211017555, 0.004117638373442766, 0.3642367220379175], "tvalues": [121.68390956199326, 1.0371184193848195, 1.3847582498062587, -4.394303005654035, -5.119462612971161, 19.808921212049405], "pvalues": [0.0, 0.29968067193710657, 0.16612640104602783, 1.111287235062879e-05, 3.064075034082991e-07, 2.49369891395245e-87], "ci_lower": [51.70742180594869, -0.0016936536977894875, -0.0010530402683942793, -0.027500671573324826, -0.02915051861988354, 6.501245672343002], "ci_upper": [53.40039448546195, 0.005500399945177519, 0.00612324771238658, -0.010535590969201595, -0.013009672793267717, 7.929027386425492], "contrast_mean": -4.588864664558998}, "rlm_pool_baseline": {"aic": 24.66764762900545, "bic": "", "rsquared_adj": "", "nobs": 2198.0, "coef_name": ["const", "front_amount_6m", "front_amount_12m", "choice_peli"], "params": [55.00016365689119, -0.004841466247586322, -0.006043865814546334, -0.8484033880533206], "bse": [0.9634991154674385, 0.002521218711450099, 0.0025212187114501015, 0.8609968787379472], "tvalues": [57.0837718208055, -1.920288083536281, -2.3972001267078293, -0.9853733608150983], "pvalues": [0.0, 0.05482152073888088, 0.016520897661731516, 0.32444070984514983], "ci_lower": [53.11174009143881, -0.009782964119177, -0.010985363686137017, -2.535926261181097], "ci_upper": [56.88858722234357, 0.00010003162400435469, -0.0011023679429556519, 0.8391194850744561], "contrast_mean": 0.0}, "rlm_pool_label": {"aic": 48.252916022823676, "bic": "", "rsquared_adj": "", "nobs": 2198.0, "coef_name": ["const", "front_amount_6m_0", "front_amount_12m_0", "front_amount_6m_1", "front_amount_12m_1", "choice_peli"], "params": [55.829300510014335, 0.014785423492642205, 0.014535168498413825, -0.06143774912157181, -0.0666165500889712, -1.0142609356905066], "bse": [0.7166642854174134, 0.0020617929152603304, 0.0020617929152603608, 0.0025516511278829246, 0.0025516511278829155, 0.6404430193111456], "tvalues": [77.9016083904574, 7.171148655720033, 7.049771289265654, -24.077644647505554, -26.107232827021466, -1.5836864562618482], "pvalues": [0.0, 7.437109232519532e-13, 1.7921210864447129e-12, 4.287111973847902e-128, 3.0177014689432215e-150, 0.11326508839956029], "ci_lower": [54.42466432159007, 0.010744383635152115, 0.010494128640923674, -0.06643889343333335, -0.07161769440073272, -2.269506187690442], "ci_upper": [57.2339366984386, 0.018826463350132296, 0.018576208355903977, -0.05643660480981027, -0.061615405777209684, 0.24098431630942896], "contrast_mean": 0.0}, "rlm_fe_baseline": {"aic": 459.3441396295745, "bic": "", "rsquared_adj": "", "nobs": 2198.0, "coef_name": ["const", "front_amount_6m", "front_amount_12m", "choice_peli"], "params": [51.829713254159074, -0.004767969427626607, -0.00641211030786068, 2.1813266049494757], "bse": [0.36126648243881976, 0.0009883462029390267, 0.0009883462029390386, 0.3188508141706582], "tvalues": [143.46670885233976, -4.82418955366873, -6.4877168433419685, 6.841213846742654], "pvalues": [0.0, 1.4057368156117308e-06, 8.714686348514376e-11, 7.852493170110033e-12], "ci_lower": [51.12164395975751, -0.006705092389644015, -0.00834923326987811, 1.5563904927337122], "ci_upper": [52.537782548560635, -0.0028308464656091993, -0.00447498734584325, 2.8062627171652395], "contrast_mean": 0.3280361598390854}, "rlm_fe_label": {"aic": 471.61850376101427, "bic": "", "rsquared_adj": "", "nobs": 2198.0, "coef_name": ["const", "front_amount_6m_0", "front_amount_12m_0", "front_amount_6m_1", "front_amount_12m_1", "choice_peli"], "params": [52.05505694628448, 7.500998420135845e-05, -0.00038181536471458034, -0.017401101137261857, -0.02200369007931982, 2.2062470045894953], "bse": [0.35107604162810846, 0.0011743274815080847, 0.0011743274815078188, 0.0016687151238165704, 0.001668715123816413, 0.30989677127436166], "tvalues": [148.27288329012754, 0.063874843587097, -0.3251353397813148, -10.4278440872899, -13.186007464831128, 7.119296517730523], "pvalues": [0.0, 0.9490698832730377, 0.7450786434318384, 1.8503900183767507e-25, 1.0563331944269794e-39, 1.084793089455927e-12], "ci_lower": [51.3669605488585, -0.0022266295856101137, -0.0026834549345255317, -0.020671722680399632, -0.025274311622457288, 1.5988604939664997], "ci_upper": [52.74315334371046, 0.0023766495540128306, 0.001919824205096371, -0.014130479594124081, -0.018733068536182354, 2.8136335152124907], "contrast_mean": 0.3294623857366257}}